
\data\
ngram 1=9
ngram 2=8

\1-grams:
-0.7403627	</s>
-99	<s>	-0.3899711
-1.041393	<unk>
-1.041393	小	-0.2596373
-1.041393	白	-0.2138798
-1.041393	好	-0.2138798
-1.041393	你	-0.2596373
-0.7403627	哈	-0.3899711
-0.7403627	囉	-0.389971

\2-grams:
-0.1760913	<s> 哈
-0.30103	小 白
-0.30103	白 </s>
-0.30103	好 </s>
-0.30103	你 好
-0.1760913	哈 囉
-0.4771213	囉 小
-0.4771213	囉 你

\end\
